digraph Tree {
node [shape=box, style="filled", color="black"] ;
0 [label="DEBTINC <= 45.155\ngini = 0.167\nsamples = 2623\nvalue = [2382, 241]\nclass = Good", fillcolor="#e88e4d"] ;
1 [label="DELINQ <= 4.5\ngini = 0.138\nsamples = 2571\nvalue = [2380, 191]\nclass = Good", fillcolor="#e78b49"] ;
0 -> 1 [labeldistance=2.5, labelangle=45, headlabel="True"] ;
2 [label="CLNO <= 2.5\ngini = 0.129\nsamples = 2558\nvalue = [2380, 178]\nclass = Good", fillcolor="#e78a48"] ;
1 -> 2 ;
3 [label="VALUE <= 62118.0\ngini = 0.48\nsamples = 20\nvalue = [8, 12]\nclass = Bad", fillcolor="#bddef6"] ;
2 -> 3 ;
4 [label="gini = 0.0\nsamples = 8\nvalue = [8, 0]\nclass = Good", fillcolor="#e58139"] ;
3 -> 4 ;
5 [label="gini = 0.0\nsamples = 12\nvalue = [0, 12]\nclass = Bad", fillcolor="#399de5"] ;
3 -> 5 ;
6 [label="DEROG <= 2.5\ngini = 0.122\nsamples = 2538\nvalue = [2372, 166]\nclass = Good", fillcolor="#e78a47"] ;
2 -> 6 ;
7 [label="DELINQ <= 0.135\ngini = 0.116\nsamples = 2517\nvalue = [2362, 155]\nclass = Good", fillcolor="#e78946"] ;
6 -> 7 ;
8 [label="VALUE <= 48837.0\ngini = 0.089\nsamples = 2110\nvalue = [2011, 99]\nclass = Good", fillcolor="#e68743"] ;
7 -> 8 ;
9 [label="gini = 0.301\nsamples = 114\nvalue = [93, 21]\nclass = Good", fillcolor="#eb9d66"] ;
8 -> 9 ;
10 [label="gini = 0.075\nsamples = 1996\nvalue = [1918, 78]\nclass = Good", fillcolor="#e68641"] ;
8 -> 10 ;
11 [label="CLAGE <= 81.946\ngini = 0.237\nsamples = 407\nvalue = [351, 56]\nclass = Good", fillcolor="#e99559"] ;
7 -> 11 ;
12 [label="gini = 0.499\nsamples = 19\nvalue = [9, 10]\nclass = Bad", fillcolor="#ebf5fc"] ;
11 -> 12 ;
13 [label="gini = 0.209\nsamples = 388\nvalue = [342, 46]\nclass = Good", fillcolor="#e89254"] ;
11 -> 13 ;
14 [label="DEBTINC <= 35.451\ngini = 0.499\nsamples = 21\nvalue = [10, 11]\nclass = Bad", fillcolor="#edf6fd"] ;
6 -> 14 ;
15 [label="DEROG <= 4.5\ngini = 0.355\nsamples = 13\nvalue = [10, 3]\nclass = Good", fillcolor="#eda774"] ;
14 -> 15 ;
16 [label="gini = 0.0\nsamples = 10\nvalue = [10, 0]\nclass = Good", fillcolor="#e58139"] ;
15 -> 16 ;
17 [label="gini = 0.0\nsamples = 3\nvalue = [0, 3]\nclass = Bad", fillcolor="#399de5"] ;
15 -> 17 ;
18 [label="gini = 0.0\nsamples = 8\nvalue = [0, 8]\nclass = Bad", fillcolor="#399de5"] ;
14 -> 18 ;
19 [label="gini = 0.0\nsamples = 13\nvalue = [0, 13]\nclass = Bad", fillcolor="#399de5"] ;
1 -> 19 ;
20 [label="DEBTINC <= 45.657\ngini = 0.074\nsamples = 52\nvalue = [2, 50]\nclass = Bad", fillcolor="#41a1e6"] ;
0 -> 20 [labeldistance=2.5, labelangle=-45, headlabel="False"] ;
21 [label="REASON_DebtCon <= 0.5\ngini = 0.444\nsamples = 6\nvalue = [2, 4]\nclass = Bad", fillcolor="#9ccef2"] ;
20 -> 21 ;
22 [label="gini = 0.0\nsamples = 2\nvalue = [2, 0]\nclass = Good", fillcolor="#e58139"] ;
21 -> 22 ;
23 [label="gini = 0.0\nsamples = 4\nvalue = [0, 4]\nclass = Bad", fillcolor="#399de5"] ;
21 -> 23 ;
24 [label="gini = 0.0\nsamples = 46\nvalue = [0, 46]\nclass = Bad", fillcolor="#399de5"] ;
20 -> 24 ;
}