digraph Tree {
node [shape=box, style="filled", color="black"] ;
0 [label="BMI <= 26.85\nmse = 6081.956\nsamples = 309\nvalue = 151.783", fillcolor="#f4caac"] ;
1 [label="LTG <= 4.714\nmse = 3620.515\nsamples = 188\nvalue = 117.973", fillcolor="#f8decb"] ;
0 -> 1 [labeldistance=2.5, labelangle=45, headlabel="True"] ;
2 [label="HDL <= 55.5\nmse = 2426.989\nsamples = 136\nvalue = 100.162", fillcolor="#fae8db"] ;
1 -> 2 ;
3 [label="LTG <= 4.174\nmse = 3136.032\nsamples = 74\nvalue = 115.541", fillcolor="#f8dfcd"] ;
2 -> 3 ;
4 [label="GLUCOSE <= 84.0\nmse = 2190.94\nsamples = 20\nvalue = 88.6", fillcolor="#fcefe6"] ;
3 -> 4 ;
5 [label="mse = 1064.972\nsamples = 12\nvalue = 73.833", fillcolor="#fef8f4"] ;
4 -> 5 ;
6 [label="mse = 3062.188\nsamples = 8\nvalue = 110.75", fillcolor="#f9e2d2"] ;
4 -> 6 ;
7 [label="LDL <= 87.2\nmse = 3117.694\nsamples = 54\nvalue = 125.519", fillcolor="#f7d9c4"] ;
3 -> 7 ;
8 [label="mse = 1459.75\nsamples = 8\nvalue = 181.0", fillcolor="#f1b991"] ;
7 -> 8 ;
9 [label="CHOLESTEROL <= 199.0\nmse = 2777.592\nsamples = 46\nvalue = 115.87", fillcolor="#f8dfcd"] ;
7 -> 9 ;
10 [label="GENDER <= 1.5\nmse = 2327.535\nsamples = 38\nvalue = 107.211", fillcolor="#f9e4d5"] ;
9 -> 10 ;
11 [label="BP <= 84.5\nmse = 2276.222\nsamples = 18\nvalue = 128.667", fillcolor="#f7d8c1"] ;
10 -> 11 ;
12 [label="mse = 1429.359\nsamples = 8\nvalue = 105.875", fillcolor="#fae5d6"] ;
11 -> 12 ;
13 [label="mse = 2205.69\nsamples = 10\nvalue = 146.9", fillcolor="#f5cdb0"] ;
11 -> 13 ;
14 [label="LDL <= 101.0\nmse = 1586.49\nsamples = 20\nvalue = 87.9", fillcolor="#fcf0e7"] ;
10 -> 14 ;
15 [label="mse = 2317.0\nsamples = 8\nvalue = 114.5", fillcolor="#f9e0ce"] ;
14 -> 15 ;
16 [label="mse = 313.306\nsamples = 12\nvalue = 70.167", fillcolor="#fefaf7"] ;
14 -> 16 ;
17 [label="mse = 2867.5\nsamples = 8\nvalue = 157.0", fillcolor="#f3c7a7"] ;
9 -> 17 ;
18 [label="GLUCOSE <= 82.5\nmse = 961.511\nsamples = 62\nvalue = 81.806", fillcolor="#fdf3ec"] ;
2 -> 18 ;
19 [label="LTG <= 4.255\nmse = 1266.645\nsamples = 27\nvalue = 94.148", fillcolor="#fbece1"] ;
18 -> 19 ;
20 [label="mse = 242.352\nsamples = 14\nvalue = 75.929", fillcolor="#fdf7f2"] ;
19 -> 20 ;
21 [label="mse = 1627.254\nsamples = 13\nvalue = 113.769", fillcolor="#f9e0cf"] ;
19 -> 21 ;
22 [label="BP <= 86.5\nmse = 517.976\nsamples = 35\nvalue = 72.286", fillcolor="#fef9f5"] ;
18 -> 22 ;
23 [label="mse = 225.918\nsamples = 14\nvalue = 61.714", fillcolor="#ffffff"] ;
22 -> 23 ;
24 [label="BP <= 91.5\nmse = 588.508\nsamples = 21\nvalue = 79.333", fillcolor="#fdf5ef"] ;
22 -> 24 ;
25 [label="mse = 753.062\nsamples = 9\nvalue = 90.222", fillcolor="#fceee5"] ;
24 -> 25 ;
26 [label="mse = 309.472\nsamples = 12\nvalue = 71.167", fillcolor="#fef9f6"] ;
24 -> 26 ;
27 [label="BP <= 107.665\nmse = 3742.208\nsamples = 52\nvalue = 164.558", fillcolor="#f3c2a0"] ;
1 -> 27 ;
28 [label="CHOLESTEROL <= 224.5\nmse = 3388.818\nsamples = 38\nvalue = 150.605", fillcolor="#f4cbad"] ;
27 -> 28 ;
29 [label="GENDER <= 1.5\nmse = 3608.393\nsamples = 28\nvalue = 162.5", fillcolor="#f3c4a2"] ;
28 -> 29 ;
30 [label="mse = 3606.686\nsamples = 13\nvalue = 190.923", fillcolor="#efb387"] ;
29 -> 30 ;
31 [label="mse = 2302.916\nsamples = 15\nvalue = 137.867", fillcolor="#f6d2b9"] ;
29 -> 31 ;
32 [label="mse = 1268.61\nsamples = 10\nvalue = 117.3", fillcolor="#f8decc"] ;
28 -> 32 ;
33 [label="mse = 2738.816\nsamples = 14\nvalue = 202.429", fillcolor="#eeac7d"] ;
27 -> 33 ;
34 [label="GLUCOSE <= 97.5\nmse = 5370.794\nsamples = 121\nvalue = 204.314", fillcolor="#eeab7b"] ;
0 -> 34 [labeldistance=2.5, labelangle=-45, headlabel="False"] ;
35 [label="LTG <= 5.118\nmse = 5122.509\nsamples = 77\nvalue = 180.662", fillcolor="#f1b991"] ;
34 -> 35 ;
36 [label="BP <= 111.835\nmse = 4780.472\nsamples = 58\nvalue = 165.897", fillcolor="#f2c29f"] ;
35 -> 36 ;
37 [label="LDL <= 123.3\nmse = 4398.268\nsamples = 50\nvalue = 157.18", fillcolor="#f3c7a7"] ;
36 -> 37 ;
38 [label="CHOLESTEROL <= 171.5\nmse = 5342.096\nsamples = 28\nvalue = 141.393", fillcolor="#f5d0b5"] ;
37 -> 38 ;
39 [label="mse = 7445.929\nsamples = 15\nvalue = 168.267", fillcolor="#f2c09c"] ;
38 -> 39 ;
40 [label="mse = 1119.775\nsamples = 13\nvalue = 110.385", fillcolor="#f9e2d2"] ;
38 -> 40 ;
41 [label="LDL <= 139.9\nmse = 2476.107\nsamples = 22\nvalue = 177.273", fillcolor="#f1bb94"] ;
37 -> 41 ;
42 [label="mse = 1752.173\nsamples = 9\nvalue = 215.222", fillcolor="#eca571"] ;
41 -> 42 ;
43 [label="mse = 1290.0\nsamples = 13\nvalue = 151.0", fillcolor="#f4caac"] ;
41 -> 43 ;
44 [label="mse = 3726.484\nsamples = 8\nvalue = 220.375", fillcolor="#eca26c"] ;
36 -> 44 ;
45 [label="TCH <= 4.71\nmse = 3469.352\nsamples = 19\nvalue = 225.737", fillcolor="#eb9e67"] ;
35 -> 45 ;
46 [label="mse = 664.49\nsamples = 10\nvalue = 257.9", fillcolor="#e78b49"] ;
45 -> 46 ;
47 [label="mse = 4159.333\nsamples = 9\nvalue = 190.0", fillcolor="#efb388"] ;
45 -> 47 ;
48 [label="HDL <= 37.5\nmse = 3113.163\nsamples = 44\nvalue = 245.705", fillcolor="#e99355"] ;
34 -> 48 ;
49 [label="mse = 1235.396\nsamples = 15\nvalue = 275.733", fillcolor="#e58139"] ;
48 -> 49 ;
50 [label="AGE <= 53.5\nmse = 3376.763\nsamples = 29\nvalue = 230.172", fillcolor="#eb9c63"] ;
48 -> 50 ;
51 [label="AGE <= 45.0\nmse = 2642.358\nsamples = 18\nvalue = 212.556", fillcolor="#eda673"] ;
50 -> 51 ;
52 [label="mse = 1974.01\nsamples = 10\nvalue = 234.3", fillcolor="#ea995f"] ;
51 -> 52 ;
53 [label="mse = 2147.984\nsamples = 8\nvalue = 185.375", fillcolor="#f0b68d"] ;
51 -> 53 ;
54 [label="mse = 3239.636\nsamples = 11\nvalue = 259.0", fillcolor="#e78b48"] ;
50 -> 54 ;
}