digraph Tree {
node [shape=box, style="filled", color="black"] ;
0 [label="CO <= 0.559\nmse = 203.757\nsamples = 145\nvalue = 32.635", fillcolor="#f3c7a7"] ;
1 [label="CO <= 0.35\nmse = 135.314\nsamples = 101\nvalue = 27.627", fillcolor="#f6d2b8"] ;
0 -> 1 [labeldistance=2.5, labelangle=45, headlabel="True"] ;
2 [label="HUMIDITY <= 49.45\nmse = 81.802\nsamples = 11\nvalue = 15.444", fillcolor="#fbece2"] ;
1 -> 2 ;
3 [label="NEWWIND_W <= 0.5\nmse = 15.714\nsamples = 5\nvalue = 26.0", fillcolor="#f6d5bd"] ;
2 -> 3 ;
4 [label="mse = 1.0\nsamples = 2\nvalue = 20.0", fillcolor="#f9e2d2"] ;
3 -> 4 ;
5 [label="mse = 1.44\nsamples = 3\nvalue = 28.4", fillcolor="#f5d0b5"] ;
3 -> 5 ;
6 [label="O3 <= 0.026\nmse = 7.835\nsamples = 6\nvalue = 8.727", fillcolor="#fefbf9"] ;
2 -> 6 ;
7 [label="mse = 2.694\nsamples = 4\nvalue = 6.857", fillcolor="#ffffff"] ;
6 -> 7 ;
8 [label="mse = 0.0\nsamples = 2\nvalue = 12.0", fillcolor="#fdf4ed"] ;
6 -> 8 ;
9 [label="CO <= 0.509\nmse = 119.614\nsamples = 90\nvalue = 29.288", fillcolor="#f5ceb2"] ;
1 -> 9 ;
10 [label="TEMP <= 8.045\nmse = 114.968\nsamples = 71\nvalue = 31.505", fillcolor="#f4c9aa"] ;
9 -> 10 ;
11 [label="CO <= 0.45\nmse = 70.087\nsamples = 19\nvalue = 25.097", fillcolor="#f7d7c0"] ;
10 -> 11 ;
12 [label="O3 <= 0.029\nmse = 29.512\nsamples = 11\nvalue = 20.474", fillcolor="#f9e1d0"] ;
11 -> 12 ;
13 [label="NEWWIND_W <= 0.5\nmse = 13.633\nsamples = 9\nvalue = 19.118", fillcolor="#f9e4d5"] ;
12 -> 13 ;
14 [label="mse = 3.36\nsamples = 3\nvalue = 14.2", fillcolor="#fcefe6"] ;
13 -> 14 ;
15 [label="mse = 3.639\nsamples = 6\nvalue = 21.167", fillcolor="#f9e0ce"] ;
13 -> 15 ;
16 [label="mse = 16.0\nsamples = 2\nvalue = 32.0", fillcolor="#f4c8a9"] ;
12 -> 16 ;
17 [label="O3 <= 0.018\nmse = 46.91\nsamples = 8\nvalue = 32.417", fillcolor="#f3c7a7"] ;
11 -> 17 ;
18 [label="HUMIDITY <= 62.55\nmse = 36.09\nsamples = 6\nvalue = 34.1", fillcolor="#f3c4a2"] ;
17 -> 18 ;
19 [label="HUMIDITY <= 53.55\nmse = 19.061\nsamples = 4\nvalue = 31.286", fillcolor="#f4caab"] ;
18 -> 19 ;
20 [label="mse = 18.0\nsamples = 2\nvalue = 33.0", fillcolor="#f3c6a5"] ;
19 -> 20 ;
21 [label="mse = 16.0\nsamples = 2\nvalue = 30.0", fillcolor="#f5cdb0"] ;
19 -> 21 ;
22 [label="mse = 14.222\nsamples = 2\nvalue = 40.667", fillcolor="#f0b58b"] ;
18 -> 22 ;
23 [label="mse = 16.0\nsamples = 2\nvalue = 24.0", fillcolor="#f7dac4"] ;
17 -> 23 ;
24 [label="HUMIDITY <= 40.1\nmse = 109.0\nsamples = 52\nvalue = 34.264", fillcolor="#f3c3a1"] ;
10 -> 24 ;
25 [label="TEMP <= 11.615\nmse = 64.571\nsamples = 5\nvalue = 48.0", fillcolor="#eca572"] ;
24 -> 25 ;
26 [label="mse = 22.25\nsamples = 3\nvalue = 42.5", fillcolor="#efb185"] ;
25 -> 26 ;
27 [label="mse = 26.889\nsamples = 2\nvalue = 55.333", fillcolor="#e99559"] ;
25 -> 27 ;
28 [label="O3 <= 0.025\nmse = 91.277\nsamples = 47\nvalue = 32.785", fillcolor="#f3c6a6"] ;
24 -> 28 ;
29 [label="RAIN <= 0.6\nmse = 97.45\nsamples = 14\nvalue = 27.5", fillcolor="#f6d2b8"] ;
28 -> 29 ;
30 [label="HUMIDITY <= 63.25\nmse = 85.5\nsamples = 11\nvalue = 30.0", fillcolor="#f5cdb0"] ;
29 -> 30 ;
31 [label="HUMIDITY <= 50.6\nmse = 30.926\nsamples = 8\nvalue = 25.727", fillcolor="#f7d6be"] ;
30 -> 31 ;
32 [label="mse = 9.188\nsamples = 2\nvalue = 31.25", fillcolor="#f4caab"] ;
31 -> 32 ;
33 [label="CO <= 0.45\nmse = 15.959\nsamples = 6\nvalue = 22.571", fillcolor="#f8ddc9"] ;
31 -> 33 ;
34 [label="mse = 6.222\nsamples = 3\nvalue = 19.333", fillcolor="#f9e4d4"] ;
33 -> 34 ;
35 [label="mse = 9.5\nsamples = 3\nvalue = 25.0", fillcolor="#f7d7c1"] ;
33 -> 35 ;
36 [label="mse = 77.04\nsamples = 3\nvalue = 39.4", fillcolor="#f0b88f"] ;
30 -> 36 ;
37 [label="mse = 20.25\nsamples = 3\nvalue = 17.5", fillcolor="#fae8db"] ;
29 -> 37 ;
38 [label="O3 <= 0.029\nmse = 70.604\nsamples = 33\nvalue = 35.133", fillcolor="#f2c19e"] ;
28 -> 38 ;
39 [label="NEWWIND_S <= 0.5\nmse = 34.628\nsamples = 6\nvalue = 42.091", fillcolor="#efb286"] ;
38 -> 39 ;
40 [label="mse = 5.556\nsamples = 2\nvalue = 49.667", fillcolor="#eca26c"] ;
39 -> 40 ;
41 [label="O3 <= 0.027\nmse = 15.938\nsamples = 4\nvalue = 39.25", fillcolor="#f0b890"] ;
39 -> 41 ;
42 [label="mse = 25.0\nsamples = 2\nvalue = 41.0", fillcolor="#f0b48a"] ;
41 -> 42 ;
43 [label="mse = 0.75\nsamples = 2\nvalue = 37.5", fillcolor="#f1bc96"] ;
41 -> 43 ;
44 [label="TEMP <= 13.605\nmse = 61.516\nsamples = 27\nvalue = 32.882", fillcolor="#f3c6a6"] ;
38 -> 44 ;
45 [label="O3 <= 0.03\nmse = 58.222\nsamples = 6\nvalue = 38.667", fillcolor="#f1ba92"] ;
44 -> 45 ;
46 [label="O3 <= 0.029\nmse = 21.5\nsamples = 4\nvalue = 34.0", fillcolor="#f3c4a2"] ;
45 -> 46 ;
47 [label="mse = 16.0\nsamples = 2\nvalue = 37.0", fillcolor="#f1bd98"] ;
46 -> 47 ;
48 [label="mse = 9.0\nsamples = 2\nvalue = 31.0", fillcolor="#f4caac"] ;
46 -> 48 ;
49 [label="mse = 1.0\nsamples = 2\nvalue = 48.0", fillcolor="#eca572"] ;
45 -> 49 ;
50 [label="O3 <= 0.041\nmse = 53.515\nsamples = 21\nvalue = 31.643", fillcolor="#f4c9aa"] ;
44 -> 50 ;
51 [label="NEWWIND_S <= 0.5\nmse = 44.588\nsamples = 12\nvalue = 29.0", fillcolor="#f5cfb3"] ;
50 -> 51 ;
52 [label="mse = 51.0\nsamples = 7\nvalue = 31.5", fillcolor="#f4c9aa"] ;
51 -> 52 ;
53 [label="mse = 28.395\nsamples = 5\nvalue = 26.778", fillcolor="#f6d4bb"] ;
51 -> 53 ;
54 [label="HUMIDITY <= 67.95\nmse = 39.835\nsamples = 9\nvalue = 35.727", fillcolor="#f2c09c"] ;
50 -> 54 ;
55 [label="mse = 13.388\nsamples = 7\nvalue = 31.571", fillcolor="#f4c9aa"] ;
54 -> 55 ;
56 [label="mse = 3.0\nsamples = 2\nvalue = 43.0", fillcolor="#efb083"] ;
54 -> 56 ;
57 [label="O3 <= 0.018\nmse = 56.656\nsamples = 19\nvalue = 21.414", fillcolor="#f8dfcd"] ;
9 -> 57 ;
58 [label="HUMIDITY <= 77.1\nmse = 10.667\nsamples = 4\nvalue = 12.0", fillcolor="#fdf4ed"] ;
57 -> 58 ;
59 [label="mse = 3.556\nsamples = 2\nvalue = 13.333", fillcolor="#fcf1e9"] ;
58 -> 59 ;
60 [label="mse = 14.222\nsamples = 2\nvalue = 10.667", fillcolor="#fdf7f2"] ;
58 -> 60 ;
61 [label="TEMP <= 25.92\nmse = 39.505\nsamples = 15\nvalue = 23.87", fillcolor="#f7dac5"] ;
57 -> 61 ;
62 [label="NEWWIND_S <= 0.5\nmse = 6.24\nsamples = 5\nvalue = 20.4", fillcolor="#f9e1d1"] ;
61 -> 62 ;
63 [label="mse = 0.889\nsamples = 3\nvalue = 18.667", fillcolor="#fae5d7"] ;
62 -> 63 ;
64 [label="mse = 3.0\nsamples = 2\nvalue = 23.0", fillcolor="#f8dcc8"] ;
62 -> 64 ;
65 [label="O3 <= 0.031\nmse = 48.71\nsamples = 10\nvalue = 26.538", fillcolor="#f6d4bc"] ;
61 -> 65 ;
66 [label="O3 <= 0.021\nmse = 18.98\nsamples = 4\nvalue = 22.143", fillcolor="#f8decb"] ;
65 -> 66 ;
67 [label="mse = 15.36\nsamples = 2\nvalue = 23.8", fillcolor="#f7dac5"] ;
66 -> 67 ;
68 [label="mse = 4.0\nsamples = 2\nvalue = 18.0", fillcolor="#fae7d9"] ;
66 -> 68 ;
69 [label="O3 <= 0.038\nmse = 34.556\nsamples = 6\nvalue = 31.667", fillcolor="#f4c9aa"] ;
65 -> 69 ;
70 [label="mse = 30.25\nsamples = 2\nvalue = 38.5", fillcolor="#f1ba92"] ;
69 -> 70 ;
71 [label="mse = 1.688\nsamples = 4\nvalue = 28.25", fillcolor="#f5d0b6"] ;
69 -> 71 ;
72 [label="O3 <= 0.02\nmse = 179.496\nsamples = 44\nvalue = 43.522", fillcolor="#eeaf81"] ;
0 -> 72 [labeldistance=2.5, labelangle=-45, headlabel="False"] ;
73 [label="CO <= 0.65\nmse = 144.705\nsamples = 37\nvalue = 40.2", fillcolor="#f0b68d"] ;
72 -> 73 ;
74 [label="HUMIDITY <= 57.45\nmse = 69.777\nsamples = 15\nvalue = 32.636", fillcolor="#f3c7a7"] ;
73 -> 74 ;
75 [label="HUMIDITY <= 51.9\nmse = 71.265\nsamples = 5\nvalue = 40.857", fillcolor="#f0b58a"] ;
74 -> 75 ;
76 [label="mse = 81.188\nsamples = 3\nvalue = 44.25", fillcolor="#eead7f"] ;
75 -> 76 ;
77 [label="mse = 22.222\nsamples = 2\nvalue = 36.333", fillcolor="#f2bf9a"] ;
75 -> 77 ;
78 [label="O3 <= 0.01\nmse = 22.827\nsamples = 10\nvalue = 28.8", fillcolor="#f5cfb4"] ;
74 -> 78 ;
79 [label="mse = 3.222\nsamples = 4\nvalue = 25.333", fillcolor="#f7d7c0"] ;
78 -> 79 ;
80 [label="TEMP <= 9.15\nmse = 22.543\nsamples = 6\nvalue = 31.111", fillcolor="#f4caac"] ;
78 -> 80 ;
81 [label="mse = 16.0\nsamples = 2\nvalue = 39.0", fillcolor="#f1b991"] ;
80 -> 81 ;
82 [label="mse = 1.551\nsamples = 4\nvalue = 28.857", fillcolor="#f5cfb4"] ;
80 -> 82 ;
83 [label="O3 <= 0.007\nmse = 131.093\nsamples = 22\nvalue = 45.242", fillcolor="#eeab7b"] ;
73 -> 83 ;
84 [label="CO <= 0.75\nmse = 101.163\nsamples = 12\nvalue = 40.118", fillcolor="#f0b68d"] ;
83 -> 84 ;
85 [label="HUMIDITY <= 51.55\nmse = 56.188\nsamples = 4\nvalue = 30.75", fillcolor="#f4cbad"] ;
84 -> 85 ;
86 [label="mse = 72.25\nsamples = 2\nvalue = 33.5", fillcolor="#f3c5a4"] ;
85 -> 86 ;
87 [label="mse = 25.0\nsamples = 2\nvalue = 28.0", fillcolor="#f5d1b7"] ;
85 -> 87 ;
88 [label="TEMP <= 3.195\nmse = 79.692\nsamples = 8\nvalue = 43.0", fillcolor="#efb083"] ;
84 -> 88 ;
89 [label="RAIN__O <= 0.5\nmse = 69.36\nsamples = 6\nvalue = 45.8", fillcolor="#edaa79"] ;
88 -> 89 ;
90 [label="CO <= 0.85\nmse = 65.2\nsamples = 4\nvalue = 51.0", fillcolor="#eb9f68"] ;
89 -> 90 ;
91 [label="mse = 64.222\nsamples = 2\nvalue = 47.667", fillcolor="#eda673"] ;
90 -> 91 ;
92 [label="mse = 25.0\nsamples = 2\nvalue = 56.0", fillcolor="#e99456"] ;
90 -> 92 ;
93 [label="mse = 19.44\nsamples = 2\nvalue = 40.6", fillcolor="#f0b58b"] ;
89 -> 93 ;
94 [label="mse = 0.889\nsamples = 2\nvalue = 33.667", fillcolor="#f3c4a3"] ;
88 -> 94 ;
95 [label="CO <= 0.75\nmse = 105.34\nsamples = 10\nvalue = 50.688", fillcolor="#eb9f69"] ;
83 -> 95 ;
96 [label="HUMIDITY <= 62.4\nmse = 102.876\nsamples = 7\nvalue = 47.182", fillcolor="#eda775"] ;
95 -> 96 ;
97 [label="mse = 2.56\nsamples = 3\nvalue = 39.2", fillcolor="#f0b890"] ;
96 -> 97 ;
98 [label="HUMIDITY <= 70.7\nmse = 89.139\nsamples = 4\nvalue = 53.833", fillcolor="#ea985e"] ;
96 -> 98 ;
99 [label="mse = 5.556\nsamples = 2\nvalue = 61.667", fillcolor="#e68743"] ;
98 -> 99 ;
100 [label="mse = 50.0\nsamples = 2\nvalue = 46.0", fillcolor="#edaa79"] ;
98 -> 100 ;
101 [label="mse = 24.24\nsamples = 3\nvalue = 58.4", fillcolor="#e88f4e"] ;
95 -> 101 ;
102 [label="RAIN <= 0.05\nmse = 102.531\nsamples = 7\nvalue = 56.571", fillcolor="#e99355"] ;
72 -> 102 ;
103 [label="mse = 1.432\nsamples = 4\nvalue = 52.111", fillcolor="#eb9c64"] ;
102 -> 103 ;
104 [label="mse = 184.24\nsamples = 3\nvalue = 64.6", fillcolor="#e58139"] ;
102 -> 104 ;
}