digraph Tree {
node [shape=box, style="filled", color="black"] ;
0 [label="FUR_HZ_TEMP <= 1152.5\ngini = 0.444\nsamples = 327\nvalue = [336, 168]", fillcolor="#f2c09c"] ;
1 [label="ROLLING_TEMP_T5 <= 1001.5\ngini = 0.299\nsamples = 143\nvalue = [174, 39]", fillcolor="#eb9d65"] ;
0 -> 1 [labeldistance=2.5, labelangle=45, headlabel="True"] ;
2 [label="FUR_EXTEMP <= 1143.5\ngini = 0.154\nsamples = 128\nvalue = [174, 16]", fillcolor="#e78d4b"] ;
1 -> 2 ;
3 [label="ROLLING_DESCALING <= 7.5\ngini = 0.083\nsamples = 110\nvalue = [155, 7]", fillcolor="#e68742"] ;
2 -> 3 ;
4 [label="PT_WGT <= 30290.0\ngini = 0.128\nsamples = 57\nvalue = [81, 6]", fillcolor="#e78a48"] ;
3 -> 4 ;
5 [label="gini = 0.034\nsamples = 36\nvalue = [56, 1]", fillcolor="#e5833d"] ;
4 -> 5 ;
6 [label="gini = 0.278\nsamples = 21\nvalue = [25, 5]", fillcolor="#ea9a61"] ;
4 -> 6 ;
7 [label="WORK_GR_4조 <= 0.5\ngini = 0.026\nsamples = 53\nvalue = [74, 1]", fillcolor="#e5833c"] ;
3 -> 7 ;
8 [label="gini = 0.0\nsamples = 39\nvalue = [59, 0]", fillcolor="#e58139"] ;
7 -> 8 ;
9 [label="gini = 0.117\nsamples = 14\nvalue = [15, 1]", fillcolor="#e78946"] ;
7 -> 9 ;
10 [label="gini = 0.436\nsamples = 18\nvalue = [19, 9]", fillcolor="#f1bd97"] ;
2 -> 10 ;
11 [label="gini = 0.0\nsamples = 15\nvalue = [0, 23]", fillcolor="#399de5"] ;
1 -> 11 ;
12 [label="PT_WDTH <= 2691.5\ngini = 0.494\nsamples = 184\nvalue = [162, 129]", fillcolor="#fae5d7"] ;
0 -> 12 [labeldistance=2.5, labelangle=-45, headlabel="False"] ;
13 [label="FUR_HZ_TIME <= 62.5\ngini = 0.439\nsamples = 80\nvalue = [39, 81]", fillcolor="#98ccf2"] ;
12 -> 13 ;
14 [label="gini = 0.463\nsamples = 16\nvalue = [14, 8]", fillcolor="#f4c9aa"] ;
13 -> 14 ;
15 [label="PT_THK <= 40.255\ngini = 0.38\nsamples = 64\nvalue = [25, 73]", fillcolor="#7dbfee"] ;
13 -> 15 ;
16 [label="PT_THK <= 18.135\ngini = 0.286\nsamples = 54\nvalue = [14, 67]", fillcolor="#62b1ea"] ;
15 -> 16 ;
17 [label="gini = 0.499\nsamples = 12\nvalue = [10, 11]", fillcolor="#edf6fd"] ;
16 -> 17 ;
18 [label="gini = 0.124\nsamples = 42\nvalue = [4, 56]", fillcolor="#47a4e7"] ;
16 -> 18 ;
19 [label="gini = 0.457\nsamples = 10\nvalue = [11, 6]", fillcolor="#f3c6a5"] ;
15 -> 19 ;
20 [label="FUR_HZ_TEMP <= 1195.5\ngini = 0.404\nsamples = 104\nvalue = [123, 48]", fillcolor="#efb286"] ;
12 -> 20 ;
21 [label="ROLLING_TEMP_T5 <= 997.5\ngini = 0.342\nsamples = 94\nvalue = [121, 34]", fillcolor="#eca471"] ;
20 -> 21 ;
22 [label="FUR_SZ_TEMP <= 1170.5\ngini = 0.23\nsamples = 83\nvalue = [118, 18]", fillcolor="#e99457"] ;
21 -> 22 ;
23 [label="gini = 0.173\nsamples = 67\nvalue = [104, 11]", fillcolor="#e88e4e"] ;
22 -> 23 ;
24 [label="gini = 0.444\nsamples = 16\nvalue = [14, 7]", fillcolor="#f2c09c"] ;
22 -> 24 ;
25 [label="gini = 0.266\nsamples = 11\nvalue = [3, 16]", fillcolor="#5eafea"] ;
21 -> 25 ;
26 [label="gini = 0.219\nsamples = 10\nvalue = [2, 14]", fillcolor="#55abe9"] ;
20 -> 26 ;
}